digraph Tree {
node [shape=box, fontname="helvetica"] ;
edge [fontname="helvetica"] ;
0 [label="adult_male <= 0.5\nentropy = 0.96\nsamples = 712\nvalue = [439, 273]\nclass = 0"] ;
1 [label="class <= 1.5\nentropy = 0.85\nsamples = 279\nvalue = [77, 202]\nclass = 1"] ;
0 -> 1 [labeldistance=2.5, labelangle=45, headlabel="True"] ;
2 [label="fare <= 28.856\nentropy = 0.311\nsamples = 143\nvalue = [8, 135]\nclass = 1"] ;
1 -> 2 ;
3 [label="entropy = 0.485\nsamples = 57\nvalue = [6, 51]\nclass = 1"] ;
2 -> 3 ;
4 [label="entropy = 0.159\nsamples = 86\nvalue = [2, 84]\nclass = 1"] ;
2 -> 4 ;
5 [label="fare <= 23.35\nentropy = 1.0\nsamples = 136\nvalue = [69, 67]\nclass = 0"] ;
1 -> 5 ;
6 [label="entropy = 0.951\nsamples = 100\nvalue = [37, 63]\nclass = 1"] ;
5 -> 6 ;
7 [label="entropy = 0.503\nsamples = 36\nvalue = [32, 4]\nclass = 0"] ;
5 -> 7 ;
8 [label="pclass <= 1.5\nentropy = 0.644\nsamples = 433\nvalue = [362, 71]\nclass = 0"] ;
0 -> 8 [labeldistance=2.5, labelangle=-45, headlabel="False"] ;
9 [label="fare <= 26.144\nentropy = 0.915\nsamples = 94\nvalue = [63, 31]\nclass = 0"] ;
8 -> 9 ;
10 [label="entropy = 0.0\nsamples = 7\nvalue = [7, 0]\nclass = 0"] ;
9 -> 10 ;
11 [label="entropy = 0.94\nsamples = 87\nvalue = [56, 31]\nclass = 0"] ;
9 -> 11 ;
12 [label="age <= 45.25\nentropy = 0.524\nsamples = 339\nvalue = [299, 40]\nclass = 0"] ;
8 -> 12 ;
13 [label="entropy = 0.548\nsamples = 316\nvalue = [276, 40]\nclass = 0"] ;
12 -> 13 ;
14 [label="entropy = 0.0\nsamples = 23\nvalue = [23, 0]\nclass = 0"] ;
12 -> 14 ;
}